<?xml version="1.0" encoding="UTF-8"?>
<PMML version="4.2" xmlns="http://www.dmg.org/PMML-4_2">
  <Header copyright="cleano">
    <Application name="KNIME" version="4.1.0"/>
  </Header>
  <DataDictionary numberOfFields="21">
    <DataField name="customerID" optype="categorical" dataType="string"/>
    <DataField name="gender" optype="categorical" dataType="string">
      <Value value="Female"/>
      <Value value="Male"/>
    </DataField>
    <DataField name="SeniorCitizen" optype="continuous" dataType="integer">
      <Interval closure="closedClosed" leftMargin="0.0" rightMargin="1.0"/>
    </DataField>
    <DataField name="Partner" optype="categorical" dataType="string">
      <Value value="Yes"/>
      <Value value="No"/>
    </DataField>
    <DataField name="Dependents" optype="categorical" dataType="string">
      <Value value="No"/>
      <Value value="Yes"/>
    </DataField>
    <DataField name="tenure" optype="continuous" dataType="integer">
      <Interval closure="closedClosed" leftMargin="0.0" rightMargin="72.0"/>
    </DataField>
    <DataField name="PhoneService" optype="categorical" dataType="string">
      <Value value="No"/>
      <Value value="Yes"/>
    </DataField>
    <DataField name="MultipleLines" optype="categorical" dataType="string">
      <Value value="No phone service"/>
      <Value value="No"/>
      <Value value="Yes"/>
    </DataField>
    <DataField name="InternetService" optype="categorical" dataType="string">
      <Value value="DSL"/>
      <Value value="Fiber optic"/>
      <Value value="No"/>
    </DataField>
    <DataField name="OnlineSecurity" optype="categorical" dataType="string">
      <Value value="No"/>
      <Value value="Yes"/>
      <Value value="No internet service"/>
    </DataField>
    <DataField name="OnlineBackup" optype="categorical" dataType="string">
      <Value value="Yes"/>
      <Value value="No"/>
      <Value value="No internet service"/>
    </DataField>
    <DataField name="DeviceProtection" optype="categorical" dataType="string">
      <Value value="No"/>
      <Value value="Yes"/>
      <Value value="No internet service"/>
    </DataField>
    <DataField name="TechSupport" optype="categorical" dataType="string">
      <Value value="No"/>
      <Value value="Yes"/>
      <Value value="No internet service"/>
    </DataField>
    <DataField name="StreamingTV" optype="categorical" dataType="string">
      <Value value="No"/>
      <Value value="Yes"/>
      <Value value="No internet service"/>
    </DataField>
    <DataField name="StreamingMovies" optype="categorical" dataType="string">
      <Value value="No"/>
      <Value value="Yes"/>
      <Value value="No internet service"/>
    </DataField>
    <DataField name="Contract" optype="categorical" dataType="string">
      <Value value="Month-to-month"/>
      <Value value="One year"/>
      <Value value="Two year"/>
    </DataField>
    <DataField name="PaperlessBilling" optype="categorical" dataType="string">
      <Value value="Yes"/>
      <Value value="No"/>
    </DataField>
    <DataField name="PaymentMethod" optype="categorical" dataType="string">
      <Value value="Electronic check"/>
      <Value value="Mailed check"/>
      <Value value="Bank transfer (automatic)"/>
      <Value value="Credit card (automatic)"/>
    </DataField>
    <DataField name="MonthlyCharges" optype="continuous" dataType="double">
      <Interval closure="closedClosed" leftMargin="18.25" rightMargin="118.75"/>
    </DataField>
    <DataField name="TotalCharges" optype="continuous" dataType="double">
      <Interval closure="closedClosed" leftMargin="18.8" rightMargin="8684.8"/>
    </DataField>
    <DataField name="Churn" optype="categorical" dataType="string">
      <Value value="No"/>
      <Value value="Yes"/>
    </DataField>
  </DataDictionary>
  <TreeModel modelName="DecisionTree" functionName="classification" splitCharacteristic="multiSplit" missingValueStrategy="lastPrediction" noTrueChildStrategy="returnNullPrediction">
    <MiningSchema>
      <MiningField name="gender" invalidValueTreatment="asIs"/>
      <MiningField name="SeniorCitizen" invalidValueTreatment="asIs"/>
      <MiningField name="Partner" invalidValueTreatment="asIs"/>
      <MiningField name="Dependents" invalidValueTreatment="asIs"/>
      <MiningField name="tenure" invalidValueTreatment="asIs"/>
      <MiningField name="PhoneService" invalidValueTreatment="asIs"/>
      <MiningField name="MultipleLines" invalidValueTreatment="asIs"/>
      <MiningField name="InternetService" invalidValueTreatment="asIs"/>
      <MiningField name="OnlineSecurity" invalidValueTreatment="asIs"/>
      <MiningField name="OnlineBackup" invalidValueTreatment="asIs"/>
      <MiningField name="DeviceProtection" invalidValueTreatment="asIs"/>
      <MiningField name="TechSupport" invalidValueTreatment="asIs"/>
      <MiningField name="StreamingTV" invalidValueTreatment="asIs"/>
      <MiningField name="StreamingMovies" invalidValueTreatment="asIs"/>
      <MiningField name="Contract" invalidValueTreatment="asIs"/>
      <MiningField name="PaperlessBilling" invalidValueTreatment="asIs"/>
      <MiningField name="PaymentMethod" invalidValueTreatment="asIs"/>
      <MiningField name="MonthlyCharges" invalidValueTreatment="asIs"/>
      <MiningField name="TotalCharges" invalidValueTreatment="asIs"/>
      <MiningField name="Churn" invalidValueTreatment="asIs" usageType="target"/>
    </MiningSchema>
    <Node id="0" score="No" recordCount="4930.0">
      <True/>
      <ScoreDistribution value="No" recordCount="3626.0"/>
      <ScoreDistribution value="Yes" recordCount="1304.0"/>
      <Node id="1" score="No" recordCount="2723.0">
        <SimplePredicate field="Contract" operator="equal" value="Month-to-month"/>
        <ScoreDistribution value="No" recordCount="1579.0"/>
        <ScoreDistribution value="Yes" recordCount="1144.0"/>
        <Node id="29" score="No" recordCount="878.0">
          <SimplePredicate field="InternetService" operator="equal" value="DSL"/>
          <ScoreDistribution value="No" recordCount="608.0"/>
          <ScoreDistribution value="Yes" recordCount="270.0"/>
          <Node id="47" score="No" recordCount="366.0">
            <SimplePredicate field="TotalCharges" operator="lessOrEqual" value="310.9"/>
            <ScoreDistribution value="No" recordCount="185.0"/>
            <ScoreDistribution value="Yes" recordCount="181.0"/>
            <Node id="73" score="Yes" recordCount="196.0">
              <SimplePredicate field="PaperlessBilling" operator="equal" value="Yes"/>
              <ScoreDistribution value="No" recordCount="85.0"/>
              <ScoreDistribution value="Yes" recordCount="111.0"/>
              <Node id="101" score="Yes" recordCount="66.0">
                <SimplePredicate field="MultipleLines" operator="equal" value="No phone service"/>
                <ScoreDistribution value="No" recordCount="18.0"/>
                <ScoreDistribution value="Yes" recordCount="48.0"/>
                <Node id="113" score="No" recordCount="11.0">
                  <SimplePredicate field="MonthlyCharges" operator="lessOrEqual" value="25.0"/>
                  <ScoreDistribution value="No" recordCount="6.0"/>
                  <ScoreDistribution value="Yes" recordCount="5.0"/>
                  <Node id="115" score="Yes" recordCount="2.0">
                    <SimplePredicate field="MonthlyCharges" operator="lessOrEqual" value="24.325"/>
                    <ScoreDistribution value="No" recordCount="0.0"/>
                    <ScoreDistribution value="Yes" recordCount="2.0"/>
                  </Node>
                  <Node id="116" score="No" recordCount="9.0">
                    <SimplePredicate field="MonthlyCharges" operator="greaterThan" value="24.325"/>
                    <ScoreDistribution value="No" recordCount="6.0"/>
                    <ScoreDistribution value="Yes" recordCount="3.0"/>
                    <Node id="117" score="Yes" recordCount="5.0">
                      <SimplePredicate field="gender" operator="equal" value="Female"/>
                      <ScoreDistribution value="No" recordCount="2.0"/>
                      <ScoreDistribution value="Yes" recordCount="3.0"/>
                      <Node id="118" score="Yes" recordCount="2.0">
                        <SimplePredicate field="TotalCharges" operator="lessOrEqual" value="24.85"/>
                        <ScoreDistribution value="No" recordCount="0.0"/>
                        <ScoreDistribution value="Yes" recordCount="2.0"/>
                      </Node>
                      <Node id="119" score="No" recordCount="3.0">
                        <SimplePredicate field="TotalCharges" operator="greaterThan" value="24.85"/>
                        <ScoreDistribution value="No" recordCount="2.0"/>
                        <ScoreDistribution value="Yes" recordCount="1.0"/>
                      </Node>
                    </Node>
                    <Node id="122" score="No" recordCount="4.0">
                      <SimplePredicate field="gender" operator="equal" value="Male"/>
                      <ScoreDistribution value="No" recordCount="4.0"/>
                      <ScoreDistribution value="Yes" recordCount="0.0"/>
                    </Node>
                  </Node>
                </Node>
                <Node id="125" score="Yes" recordCount="55.0">
                  <SimplePredicate field="MonthlyCharges" operator="greaterThan" value="25.0"/>
                  <ScoreDistribution value="No" recordCount="12.0"/>
                  <ScoreDistribution value="Yes" recordCount="43.0"/>
                  <Node id="135" score="Yes" recordCount="24.0">
                    <SimplePredicate field="tenure" operator="lessOrEqual" value="2.5"/>
                    <ScoreDistribution value="No" recordCount="2.0"/>
                    <ScoreDistribution value="Yes" recordCount="22.0"/>
                    <Node id="140" score="Yes" recordCount="9.0">
                      <SimplePredicate field="TotalCharges" operator="lessOrEqual" value="32.275000000000006"/>
                      <ScoreDistribution value="No" recordCount="2.0"/>
                      <ScoreDistribution value="Yes" recordCount="7.0"/>
                      <Node id="142" score="Yes" recordCount="5.0">
                        <SimplePredicate field="SeniorCitizen" operator="lessOrEqual" value="0.5"/>
                        <ScoreDistribution value="No" recordCount="2.0"/>
                        <ScoreDistribution value="Yes" recordCount="3.0"/>
                        <Node id="145" score="No" recordCount="3.0">
                          <SimplePredicate field="gender" operator="equal" value="Female"/>
                          <ScoreDistribution value="No" recordCount="2.0"/>
                          <ScoreDistribution value="Yes" recordCount="1.0"/>
                        </Node>
                        <Node id="147" score="Yes" recordCount="2.0">
                          <SimplePredicate field="gender" operator="equal" value="Male"/>
                          <ScoreDistribution value="No" recordCount="0.0"/>
                          <ScoreDistribution value="Yes" recordCount="2.0"/>
                        </Node>
                      </Node>
                      <Node id="148" score="Yes" recordCount="4.0">
                        <SimplePredicate field="SeniorCitizen" operator="greaterThan" value="0.5"/>
                        <ScoreDistribution value="No" recordCount="0.0"/>
                        <ScoreDistribution value="Yes" recordCount="4.0"/>
                      </Node>
                    </Node>
                    <Node id="154" score="Yes" recordCount="15.0">
                      <SimplePredicate field="TotalCharges" operator="greaterThan" value="32.275000000000006"/>
                      <ScoreDistribution value="No" recordCount="0.0"/>
                      <ScoreDistribution value="Yes" recordCount="15.0"/>
                    </Node>
                  </Node>
                  <Node id="156" score="Yes" recordCount="31.0">
                    <SimplePredicate field="tenure" operator="greaterThan" value="2.5"/>
                    <ScoreDistribution value="No" recordCount="10.0"/>
                    <ScoreDistribution value="Yes" recordCount="21.0"/>
                    <Node id="160" score="No" recordCount="11.0">
                      <SimplePredicate field="gender" operator="equal" value="Female"/>
                      <ScoreDistribution value="No" recordCount="6.0"/>
                      <ScoreDistribution value="Yes" recordCount="5.0"/>
                      <Node id="162" score="No" recordCount="9.0">
                        <SimplePredicate field="TotalCharges" operator="lessOrEqual" value="277.225"/>
                        <ScoreDistribution value="No" recordCount="6.0"/>
                        <ScoreDistribution value="Yes" recordCount="3.0"/>
                        <Node id="164" score="No" recordCount="3.0">
                          <SimplePredicate field="MonthlyCharges" operator="lessOrEqual" value="30.875"/>
                          <ScoreDistribution value="No" recordCount="3.0"/>
                          <ScoreDistribution value="Yes" recordCount="0.0"/>
                        </Node>
                        <Node id="165" score="No" recordCount="6.0">
                          <SimplePredicate field="MonthlyCharges" operator="greaterThan" value="30.875"/>
                          <ScoreDistribution value="No" recordCount="3.0"/>
                          <ScoreDistribution value="Yes" recordCount="3.0"/>
                          <Node id="169" score="Yes" recordCount="4.0">
                            <SimplePredicate field="TotalCharges" operator="lessOrEqual" value="189.55"/>
                            <ScoreDistribution value="No" recordCount="1.0"/>
                            <ScoreDistribution value="Yes" recordCount="3.0"/>
                          </Node>
                          <Node id="175" score="No" recordCount="2.0">
                            <SimplePredicate field="TotalCharges" operator="greaterThan" value="189.55"/>
                            <ScoreDistribution value="No" recordCount="2.0"/>
                            <ScoreDistribution value="Yes" recordCount="0.0"/>
                          </Node>
                        </Node>
                      </Node>
                      <Node id="178" score="Yes" recordCount="2.0">
                        <SimplePredicate field="TotalCharges" operator="greaterThan" value="277.225"/>
                        <ScoreDistribution value="No" recordCount="0.0"/>
                        <ScoreDistribution value="Yes" recordCount="2.0"/>
                      </Node>
                    </Node>
                    <Node id="182" score="Yes" recordCount="20.0">
                      <SimplePredicate field="gender" operator="equal" value="Male"/>
                      <ScoreDistribution value="No" recordCount="4.0"/>
                      <ScoreDistribution value="Yes" recordCount="16.0"/>
                      <Node id="184" score="Yes" recordCount="10.0">
                        <SimplePredicate field="PaymentMethod" operator="equal" value="Electronic check"/>
                        <ScoreDistribution value="No" recordCount="2.0"/>
                        <ScoreDistribution value="Yes" recordCount="8.0"/>
                        <Node id="187" score="Yes" recordCount="8.0">
                          <SimplePredicate field="TechSupport" operator="equal" value="No"/>
                          <ScoreDistribution value="No" recordCount="0.0"/>
                          <ScoreDistribution value="Yes" recordCount="8.0"/>
                        </Node>
                        <Node id="188" score="No" recordCount="2.0">
                          <SimplePredicate field="TechSupport" operator="equal" value="Yes"/>
                          <ScoreDistribution value="No" recordCount="2.0"/>
                          <ScoreDistribution value="Yes" recordCount="0.0"/>
                        </Node>
                      </Node>
                      <Node id="192" score="Yes" recordCount="5.0">
                        <SimplePredicate field="PaymentMethod" operator="equal" value="Mailed check"/>
                        <ScoreDistribution value="No" recordCount="0.0"/>
                        <ScoreDistribution value="Yes" recordCount="5.0"/>
                      </Node>
                      <Node id="193" score="Yes" recordCount="1.0">
                        <SimplePredicate field="PaymentMethod" operator="equal" value="Bank transfer (automatic)"/>
                        <ScoreDistribution value="No" recordCount="0.0"/>
                        <ScoreDistribution value="Yes" recordCount="1.0"/>
                      </Node>
                      <Node id="195" score="No" recordCount="4.0">
                        <SimplePredicate field="PaymentMethod" operator="equal" value="Credit card (automatic)"/>
                        <ScoreDistribution value="No" recordCount="2.0"/>
                        <ScoreDistribution value="Yes" recordCount="2.0"/>
                        <Node id="197" score="No" recordCount="2.0">
                          <SimplePredicate field="TotalCharges" operator="lessOrEqual" value="208.02499999999998"/>
                          <ScoreDistribution value="No" recordCount="2.0"/>
                          <ScoreDistribution value="Yes" recordCount="0.0"/>
                        </Node>
                        <Node id="198" score="Yes" recordCount="2.0">
                          <SimplePredicate field="TotalCharges" operator="greaterThan" value="208.02499999999998"/>
                          <ScoreDistribution value="No" recordCount="0.0"/>
                          <ScoreDistribution value="Yes" recordCount="2.0"/>
                        </Node>
                      </Node>
                    </Node>
                  </Node>
                </Node>
              </Node>
              <Node id="207" score="No" recordCount="115.0">
                <SimplePredicate field="MultipleLines" operator="equal" value="No"/>
                <ScoreDistribution value="No" recordCount="61.0"/>
                <ScoreDistribution value="Yes" recordCount="54.0"/>
                <Node id="217" score="Yes" recordCount="95.0">
                  <SimplePredicate field="TotalCharges" operator="lessOrEqual" value="198.35"/>
                  <ScoreDistribution value="No" recordCount="46.0"/>
                  <ScoreDistribution value="Yes" recordCount="49.0"/>
                  <Node id="224" score="No" recordCount="85.0">
                    <SimplePredicate field="TotalCharges" operator="lessOrEqual" value="154.60000000000002"/>
                    <ScoreDistribution value="No" recordCount="44.0"/>
                    <ScoreDistribution value="Yes" recordCount="41.0"/>
                    <Node id="233" score="Yes" recordCount="79.0">
                      <SimplePredicate field="MonthlyCharges" operator="lessOrEqual" value="57.625"/>
                      <ScoreDistribution value="No" recordCount="39.0"/>
                      <ScoreDistribution value="Yes" recordCount="40.0"/>
                      <Node id="243" score="No" recordCount="71.0">
                        <SimplePredicate field="SeniorCitizen" operator="lessOrEqual" value="0.5"/>
                        <ScoreDistribution value="No" recordCount="37.0"/>
                        <ScoreDistribution value="Yes" recordCount="34.0"/>
                        <Node id="248" score="Yes" recordCount="2.0">
                          <SimplePredicate field="MonthlyCharges" operator="lessOrEqual" value="43.575"/>
                          <ScoreDistribution value="No" recordCount="0.0"/>
                          <ScoreDistribution value="Yes" recordCount="2.0"/>
                        </Node>
                        <Node id="250" score="No" recordCount="69.0">
                          <SimplePredicate field="MonthlyCharges" operator="greaterThan" value="43.575"/>
                          <ScoreDistribution value="No" recordCount="37.0"/>
                          <ScoreDistribution value="Yes" recordCount="32.0"/>
                          <Node id="255" score="No" recordCount="3.0">
                            <SimplePredicate field="TotalCharges" operator="lessOrEqual" value="44.075"/>
                            <ScoreDistribution value="No" recordCount="3.0"/>
                            <ScoreDistribution value="Yes" recordCount="0.0"/>
                          </Node>
                          <Node id="256" score="No" recordCount="66.0">
                            <SimplePredicate field="TotalCharges" operator="greaterThan" value="44.075"/>
                            <ScoreDistribution value="No" recordCount="34.0"/>
                            <ScoreDistribution value="Yes" recordCount="32.0"/>
                            <Node id="267" score="Yes" recordCount="3.0">
                              <SimplePredicate field="TotalCharges" operator="lessOrEqual" value="44.5"/>
                              <ScoreDistribution value="No" recordCount="0.0"/>
                              <ScoreDistribution value="Yes" recordCount="3.0"/>
                            </Node>
                            <Node id="268" score="No" recordCount="63.0">
                              <SimplePredicate field="TotalCharges" operator="greaterThan" value="44.5"/>
                              <ScoreDistribution value="No" recordCount="34.0"/>
                              <ScoreDistribution value="Yes" recordCount="29.0"/>
                              <Node id="275" score="No" recordCount="6.0">
                                <SimplePredicate field="TotalCharges" operator="lessOrEqual" value="45.025"/>
                                <ScoreDistribution value="No" recordCount="5.0"/>
                                <ScoreDistribution value="Yes" recordCount="1.0"/>
                                <Node id="277" score="No" recordCount="2.0">
                                  <SimplePredicate field="PaymentMethod" operator="equal" value="Electronic check"/>
                                  <ScoreDistribution value="No" recordCount="2.0"/>
                                  <ScoreDistribution value="Yes" recordCount="0.0"/>
                                </Node>
                                <Node id="278" score="No" recordCount="2.0">
                                  <SimplePredicate field="PaymentMethod" operator="equal" value="Mailed check"/>
                                  <ScoreDistribution value="No" recordCount="2.0"/>
                                  <ScoreDistribution value="Yes" recordCount="0.0"/>
                                </Node>
                                <Node id="279" score="Yes" recordCount="1.0">
                                  <SimplePredicate field="PaymentMethod" operator="equal" value="Bank transfer (automatic)"/>
                                  <ScoreDistribution value="No" recordCount="0.0"/>
                                  <ScoreDistribution value="Yes" recordCount="1.0"/>
                                </Node>
                                <Node id="280" score="No" recordCount="1.0">
                                  <SimplePredicate field="PaymentMethod" operator="equal" value="Credit card (automatic)"/>
                                  <ScoreDistribution value="No" recordCount="1.0"/>
                                  <ScoreDistribution value="Yes" recordCount="0.0"/>
                                </Node>
                              </Node>
                              <Node id="281" score="No" recordCount="57.0">
                                <SimplePredicate field="TotalCharges" operator="greaterThan" value="45.025"/>
                                <ScoreDistribution value="No" recordCount="29.0"/>
                                <ScoreDistribution value="Yes" recordCount="28.0"/>
                                <Node id="282" score="Yes" recordCount="12.0">
                                  <SimplePredicate field="TotalCharges" operator="lessOrEqual" value="47.150000000000006"/>
                                  <ScoreDistribution value="No" recordCount="3.0"/>
                                  <ScoreDistribution value="Yes" recordCount="9.0"/>
                                  <Node id="283" score="Yes" recordCount="3.0">
                                    <SimplePredicate field="TotalCharges" operator="lessOrEqual" value="45.349999999999994"/>
                                    <ScoreDistribution value="No" recordCount="0.0"/>
                                    <ScoreDistribution value="Yes" recordCount="3.0"/>
                                  </Node>
                                  <Node id="284" score="Yes" recordCount="9.0">
                                    <SimplePredicate field="TotalCharges" operator="greaterThan" value="45.349999999999994"/>
                                    <ScoreDistribution value="No" recordCount="3.0"/>
                                    <ScoreDistribution value="Yes" recordCount="6.0"/>
                                    <Node id="285" score="No" recordCount="3.0">
                                      <SimplePredicate field="TotalCharges" operator="lessOrEqual" value="45.625"/>
                                      <ScoreDistribution value="No" recordCount="2.0"/>
                                      <ScoreDistribution value="Yes" recordCount="1.0"/>
                                    </Node>
                                    <Node id="286" score="Yes" recordCount="6.0">
                                      <SimplePredicate field="TotalCharges" operator="greaterThan" value="45.625"/>
                                      <ScoreDistribution value="No" recordCount="1.0"/>
                                      <ScoreDistribution value="Yes" recordCount="5.0"/>
                                    </Node>
                                  </Node>
                                </Node>
                                <Node id="293" score="No" recordCount="45.0">
                                  <SimplePredicate field="TotalCharges" operator="greaterThan" value="47.150000000000006"/>
                                  <ScoreDistribution value="No" recordCount="26.0"/>
                                  <ScoreDistribution value="Yes" recordCount="19.0"/>
                                  <Node id="299" score="No" recordCount="10.0">
                                    <SimplePredicate field="TotalCharges" operator="lessOrEqual" value="50.3"/>
                                    <ScoreDistribution value="No" recordCount="9.0"/>
                                    <ScoreDistribution value="Yes" recordCount="1.0"/>
                                  </Node>
                                  <Node id="305" score="Yes" recordCount="35.0">
                                    <SimplePredicate field="TotalCharges" operator="greaterThan" value="50.3"/>
                                    <ScoreDistribution value="No" recordCount="17.0"/>
                                    <ScoreDistribution value="Yes" recordCount="18.0"/>
                                    <Node id="308" score="Yes" recordCount="17.0">
                                      <SimplePredicate field="PaymentMethod" operator="equal" value="Electronic check"/>
                                      <ScoreDistribution value="No" recordCount="7.0"/>
                                      <ScoreDistribution value="Yes" recordCount="10.0"/>
                                      <Node id="317" score="Yes" recordCount="4.0">
                                        <SimplePredicate field="TotalCharges" operator="lessOrEqual" value="54.3"/>
                                        <ScoreDistribution value="No" recordCount="0.0"/>
                                        <ScoreDistribution value="Yes" recordCount="4.0"/>
                                      </Node>
                                      <Node id="318" score="No" recordCount="13.0">
                                        <SimplePredicate field="TotalCharges" operator="greaterThan" value="54.3"/>
                                        <ScoreDistribution value="No" recordCount="7.0"/>
                                        <ScoreDistribution value="Yes" recordCount="6.0"/>
                                        <Node id="319" score="No" recordCount="2.0">
                                          <SimplePredicate field="MonthlyCharges" operator="lessOrEqual" value="45.075"/>
                                          <ScoreDistribution value="No" recordCount="2.0"/>
                                          <ScoreDistribution value="Yes" recordCount="0.0"/>
                                        </Node>
                                        <Node id="320" score="Yes" recordCount="11.0">
                                          <SimplePredicate field="MonthlyCharges" operator="greaterThan" value="45.075"/>
                                          <ScoreDistribution value="No" recordCount="5.0"/>
                                          <ScoreDistribution value="Yes" recordCount="6.0"/>
                                          <Node id="337" score="Yes" recordCount="9.0">
                                            <SimplePredicate field="StreamingTV" operator="equal" value="No"/>
                                            <ScoreDistribution value="No" recordCount="3.0"/>
                                            <ScoreDistribution value="Yes" recordCount="6.0"/>
                                            <Node id="361" score="Yes" recordCount="4.0">
                                              <SimplePredicate field="MonthlyCharges" operator="lessOrEqual" value="55.125"/>
                                              <ScoreDistribution value="No" recordCount="0.0"/>
                                              <ScoreDistribution value="Yes" recordCount="4.0"/>
                                            </Node>
                                            <Node id="362" score="No" recordCount="5.0">
                                              <SimplePredicate field="MonthlyCharges" operator="greaterThan" value="55.125"/>
                                              <ScoreDistribution value="No" recordCount="3.0"/>
                                              <ScoreDistribution value="Yes" recordCount="2.0"/>
                                              <Node id="364" score="No" recordCount="2.0">
                                                <SimplePredicate field="MonthlyCharges" operator="lessOrEqual" value="55.349999999999994"/>
                                                <ScoreDistribution value="No" recordCount="2.0"/>
                                                <ScoreDistribution value="Yes" recordCount="0.0"/>
                                              </Node>
                                              <Node id="365" score="Yes" recordCount="3.0">
                                                <SimplePredicate field="MonthlyCharges" operator="greaterThan" value="55.349999999999994"/>
                                                <ScoreDistribution value="No" recordCount="1.0"/>
                                                <ScoreDistribution value="Yes" recordCount="2.0"/>
                                              </Node>
                                            </Node>
                                          </Node>
                                          <Node id="372" score="No" recordCount="2.0">
                                            <SimplePredicate field="StreamingTV" operator="equal" value="Yes"/>
                                            <ScoreDistribution value="No" recordCount="2.0"/>
                                            <ScoreDistribution value="Yes" recordCount="0.0"/>
                                          </Node>
                                        </Node>
                                      </Node>
                                    </Node>
                                    <Node id="378" score="No" recordCount="15.0">
                                      <SimplePredicate field="PaymentMethod" operator="equal" value="Mailed check"/>
                                      <ScoreDistribution value="No" recordCount="9.0"/>
                                      <ScoreDistribution value="Yes" recordCount="6.0"/>
                                      <Node id="387" score="No" recordCount="12.0">
                                        <SimplePredicate field="TotalCharges" operator="lessOrEqual" value="122.42500000000001"/>
                                        <ScoreDistribution value="No" recordCount="6.0"/>
                                        <ScoreDistribution value="Yes" recordCount="6.0"/>
                                        <Node id="389" score="No" recordCount="9.0">
                                          <SimplePredicate field="TotalCharges" operator="lessOrEqual" value="106.875"/>
                                          <ScoreDistribution value="No" recordCount="6.0"/>
                                          <ScoreDistribution value="Yes" recordCount="3.0"/>
                                          <Node id="394" score="No" recordCount="6.0">
                                            <SimplePredicate field="OnlineSecurity" operator="equal" value="No"/>
                                            <ScoreDistribution value="No" recordCount="3.0"/>
                                            <ScoreDistribution value="Yes" recordCount="3.0"/>
                                            <Node id="402" score="Yes" recordCount="2.0">
                                              <SimplePredicate field="TotalCharges" operator="lessOrEqual" value="64.95"/>
                                              <ScoreDistribution value="No" recordCount="0.0"/>
                                              <ScoreDistribution value="Yes" recordCount="2.0"/>
                                            </Node>
                                            <Node id="403" score="No" recordCount="4.0">
                                              <SimplePredicate field="TotalCharges" operator="greaterThan" value="64.95"/>
                                              <ScoreDistribution value="No" recordCount="3.0"/>
                                              <ScoreDistribution value="Yes" recordCount="1.0"/>
                                            </Node>
                                          </Node>
                                          <Node id="423" score="No" recordCount="3.0">
                                            <SimplePredicate field="OnlineSecurity" operator="equal" value="Yes"/>
                                            <ScoreDistribution value="No" recordCount="3.0"/>
                                            <ScoreDistribution value="Yes" recordCount="0.0"/>
                                          </Node>
                                        </Node>
                                        <Node id="430" score="Yes" recordCount="3.0">
                                          <SimplePredicate field="TotalCharges" operator="greaterThan" value="106.875"/>
                                          <ScoreDistribution value="No" recordCount="0.0"/>
                                          <ScoreDistribution value="Yes" recordCount="3.0"/>
                                        </Node>
                                      </Node>
                                      <Node id="433" score="No" recordCount="3.0">
                                        <SimplePredicate field="TotalCharges" operator="greaterThan" value="122.42500000000001"/>
                                        <ScoreDistribution value="No" recordCount="3.0"/>
                                        <ScoreDistribution value="Yes" recordCount="0.0"/>
                                      </Node>
                                    </Node>
                                    <Node id="444" score="No" recordCount="1.0">
                                      <SimplePredicate field="PaymentMethod" operator="equal" value="Bank transfer (automatic)"/>
                                      <ScoreDistribution value="No" recordCount="1.0"/>
                                      <ScoreDistribution value="Yes" recordCount="0.0"/>
                                    </Node>
                                    <Node id="446" score="Yes" recordCount="2.0">
                                      <SimplePredicate field="PaymentMethod" operator="equal" value="Credit card (automatic)"/>
                                      <ScoreDistribution value="No" recordCount="0.0"/>
                                      <ScoreDistribution value="Yes" recordCount="2.0"/>
                                    </Node>
                                  </Node>
                                </Node>
                              </Node>
                            </Node>
                          </Node>
                        </Node>
                      </Node>
                      <Node id="460" score="Yes" recordCount="8.0">
                        <SimplePredicate field="SeniorCitizen" operator="greaterThan" value="0.5"/>
                        <ScoreDistribution value="No" recordCount="2.0"/>
                        <ScoreDistribution value="Yes" recordCount="6.0"/>
                        <Node id="463" score="No" recordCount="4.0">
                          <SimplePredicate field="MonthlyCharges" operator="lessOrEqual" value="47.55"/>
                          <ScoreDistribution value="No" recordCount="2.0"/>
                          <ScoreDistribution value="Yes" recordCount="2.0"/>
                          <Node id="466" score="No" recordCount="2.0">
                            <SimplePredicate field="TotalCharges" operator="lessOrEqual" value="90.975"/>
                            <ScoreDistribution value="No" recordCount="2.0"/>
                            <ScoreDistribution value="Yes" recordCount="0.0"/>
                          </Node>
                          <Node id="467" score="Yes" recordCount="2.0">
                            <SimplePredicate field="TotalCharges" operator="greaterThan" value="90.975"/>
                            <ScoreDistribution value="No" recordCount="0.0"/>
                            <ScoreDistribution value="Yes" recordCount="2.0"/>
                          </Node>
                        </Node>
                        <Node id="470" score="Yes" recordCount="4.0">
                          <SimplePredicate field="MonthlyCharges" operator="greaterThan" value="47.55"/>
                          <ScoreDistribution value="No" recordCount="0.0"/>
                          <ScoreDistribution value="Yes" recordCount="4.0"/>
                        </Node>
                      </Node>
                    </Node>
                    <Node id="473" score="No" recordCount="6.0">
                      <SimplePredicate field="MonthlyCharges" operator="greaterThan" value="57.625"/>
                      <ScoreDistribution value="No" recordCount="5.0"/>
                      <ScoreDistribution value="Yes" recordCount="1.0"/>
                    </Node>
                  </Node>
                  <Node id="480" score="Yes" recordCount="10.0">
                    <SimplePredicate field="TotalCharges" operator="greaterThan" value="154.60000000000002"/>
                    <ScoreDistribution value="No" recordCount="2.0"/>
                    <ScoreDistribution value="Yes" recordCount="8.0"/>
                    <Node id="483" score="Yes" recordCount="4.0">
                      <SimplePredicate field="PaymentMethod" operator="equal" value="Electronic check"/>
                      <ScoreDistribution value="No" recordCount="0.0"/>
                      <ScoreDistribution value="Yes" recordCount="4.0"/>
                    </Node>
                    <Node id="484" score="Yes" recordCount="3.0">
                      <SimplePredicate field="PaymentMethod" operator="equal" value="Mailed check"/>
                      <ScoreDistribution value="No" recordCount="0.0"/>
                      <ScoreDistribution value="Yes" recordCount="3.0"/>
                    </Node>
                    <Node id="485" score="No" recordCount="1.0">
                      <SimplePredicate field="PaymentMethod" operator="equal" value="Bank transfer (automatic)"/>
                      <ScoreDistribution value="No" recordCount="1.0"/>
                      <ScoreDistribution value="Yes" recordCount="0.0"/>
                    </Node>
                    <Node id="486" score="No" recordCount="2.0">
                      <SimplePredicate field="PaymentMethod" operator="equal" value="Credit card (automatic)"/>
                      <ScoreDistribution value="No" recordCount="1.0"/>
                      <ScoreDistribution value="Yes" recordCount="1.0"/>
                    </Node>
                  </Node>
                </Node>
                <Node id="494" score="No" recordCount="20.0">
                  <SimplePredicate field="TotalCharges" operator="greaterThan" value="198.35"/>
                  <ScoreDistribution value="No" recordCount="15.0"/>
                  <ScoreDistribution value="Yes" recordCount="5.0"/>
                  <Node id="497" score="No" recordCount="12.0">
                    <SimplePredicate field="TotalCharges" operator="lessOrEqual" value="255.325"/>
                    <ScoreDistribution value="No" recordCount="11.0"/>
                    <ScoreDistribution value="Yes" recordCount="1.0"/>
                  </Node>
                  <Node id="505" score="No" recordCount="8.0">
                    <SimplePredicate field="TotalCharges" operator="greaterThan" value="255.325"/>
                    <ScoreDistribution value="No" recordCount="4.0"/>
                    <ScoreDistribution value="Yes" recordCount="4.0"/>
                    <Node id="509" score="No" recordCount="5.0">
                      <SimplePredicate field="MonthlyCharges" operator="lessOrEqual" value="58.099999999999994"/>
                      <ScoreDistribution value="No" recordCount="4.0"/>
                      <ScoreDistribution value="Yes" recordCount="1.0"/>
                    </Node>
                    <Node id="516" score="Yes" recordCount="3.0">
                      <SimplePredicate field="MonthlyCharges" operator="greaterThan" value="58.099999999999994"/>
                      <ScoreDistribution value="No" recordCount="0.0"/>
                      <ScoreDistribution value="Yes" recordCount="3.0"/>
                    </Node>
                  </Node>
                </Node>
              </Node>
              <Node id="525" score="Yes" recordCount="15.0">
                <SimplePredicate field="MultipleLines" operator="equal" value="Yes"/>
                <ScoreDistribution value="No" recordCount="6.0"/>
                <ScoreDistribution value="Yes" recordCount="9.0"/>
                <Node id="530" score="Yes" recordCount="11.0">
                  <SimplePredicate field="TechSupport" operator="equal" value="No"/>
                  <ScoreDistribution value="No" recordCount="2.0"/>
                  <ScoreDistribution value="Yes" recordCount="9.0"/>
                </Node>
                <Node id="542" score="No" recordCount="4.0">
                  <SimplePredicate field="TechSupport" operator="equal" value="Yes"/>
                  <ScoreDistribution value="No" recordCount="4.0"/>
                  <ScoreDistribution value="Yes" recordCount="0.0"/>
                </Node>
              </Node>
            </Node>
            <Node id="547" score="No" recordCount="170.0">
              <SimplePredicate field="PaperlessBilling" operator="equal" value="No"/>
              <ScoreDistribution value="No" recordCount="100.0"/>
              <ScoreDistribution value="Yes" recordCount="70.0"/>
              <Node id="556" score="No" recordCount="70.0">
                <SimplePredicate field="MonthlyCharges" operator="lessOrEqual" value="44.95"/>
                <ScoreDistribution value="No" recordCount="48.0"/>
                <ScoreDistribution value="Yes" recordCount="22.0"/>
                <Node id="564" score="No" recordCount="66.0">
                  <SimplePredicate field="StreamingMovies" operator="equal" value="No"/>
                  <ScoreDistribution value="No" recordCount="47.0"/>
                  <ScoreDistribution value="Yes" recordCount="19.0"/>
                  <Node id="570" score="No" recordCount="57.0">
                    <SimplePredicate field="MonthlyCharges" operator="lessOrEqual" value="44.474999999999994"/>
                    <ScoreDistribution value="No" recordCount="38.0"/>
                    <ScoreDistribution value="Yes" recordCount="19.0"/>
                    <Node id="574" score="No" recordCount="53.0">
                      <SimplePredicate field="MonthlyCharges" operator="lessOrEqual" value="44.224999999999994"/>
                      <ScoreDistribution value="No" recordCount="38.0"/>
                      <ScoreDistribution value="Yes" recordCount="15.0"/>
                      <Node id="579" score="No" recordCount="48.0">
                        <SimplePredicate field="tenure" operator="lessOrEqual" value="7.5"/>
                        <ScoreDistribution value="No" recordCount="36.0"/>
                        <ScoreDistribution value="Yes" recordCount="12.0"/>
                        <Node id="582" score="No" recordCount="41.0">
                          <SimplePredicate field="tenure" operator="lessOrEqual" value="5.5"/>
                          <ScoreDistribution value="No" recordCount="29.0"/>
                          <ScoreDistribution value="Yes" recordCount="12.0"/>
                          <Node id="586" score="No" recordCount="32.0">
                            <SimplePredicate field="OnlineSecurity" operator="equal" value="No"/>
                            <ScoreDistribution value="No" recordCount="25.0"/>
                            <ScoreDistribution value="Yes" recordCount="7.0"/>
                            <Node id="592" score="No" recordCount="15.0">
                              <SimplePredicate field="PaymentMethod" operator="equal" value="Electronic check"/>
                              <ScoreDistribution value="No" recordCount="10.0"/>
                              <ScoreDistribution value="Yes" recordCount="5.0"/>
                              <Node id="596" score="Yes" recordCount="8.0">
                                <SimplePredicate field="MonthlyCharges" operator="lessOrEqual" value="30.299999999999997"/>
                                <ScoreDistribution value="No" recordCount="3.0"/>
                                <ScoreDistribution value="Yes" recordCount="5.0"/>
                                <Node id="599" score="No" recordCount="3.0">
                                  <SimplePredicate field="gender" operator="equal" value="Female"/>
                                  <ScoreDistribution value="No" recordCount="2.0"/>
                                  <ScoreDistribution value="Yes" recordCount="1.0"/>
                                </Node>
                                <Node id="601" score="Yes" recordCount="5.0">
                                  <SimplePredicate field="gender" operator="equal" value="Male"/>
                                  <ScoreDistribution value="No" recordCount="1.0"/>
                                  <ScoreDistribution value="Yes" recordCount="4.0"/>
                                </Node>
                              </Node>
                              <Node id="611" score="No" recordCount="7.0">
                                <SimplePredicate field="MonthlyCharges" operator="greaterThan" value="30.299999999999997"/>
                                <ScoreDistribution value="No" recordCount="7.0"/>
                                <ScoreDistribution value="Yes" recordCount="0.0"/>
                              </Node>
                            </Node>
                            <Node id="612" score="No" recordCount="12.0">
                              <SimplePredicate field="PaymentMethod" operator="equal" value="Mailed check"/>
                              <ScoreDistribution value="No" recordCount="11.0"/>
                              <ScoreDistribution value="Yes" recordCount="1.0"/>
                            </Node>
                            <Node id="618" score="No" recordCount="4.0">
                              <SimplePredicate field="PaymentMethod" operator="equal" value="Bank transfer (automatic)"/>
                              <ScoreDistribution value="No" recordCount="3.0"/>
                              <ScoreDistribution value="Yes" recordCount="1.0"/>
                            </Node>
                            <Node id="627" score="No" recordCount="1.0">
                              <SimplePredicate field="PaymentMethod" operator="equal" value="Credit card (automatic)"/>
                              <ScoreDistribution value="No" recordCount="1.0"/>
                              <ScoreDistribution value="Yes" recordCount="0.0"/>
                            </Node>
                          </Node>
                          <Node id="628" score="Yes" recordCount="9.0">
                            <SimplePredicate field="OnlineSecurity" operator="equal" value="Yes"/>
                            <ScoreDistribution value="No" recordCount="4.0"/>
                            <ScoreDistribution value="Yes" recordCount="5.0"/>
                            <Node id="630" score="Yes" recordCount="5.0">
                              <SimplePredicate field="MonthlyCharges" operator="lessOrEqual" value="34.625"/>
                              <ScoreDistribution value="No" recordCount="1.0"/>
                              <ScoreDistribution value="Yes" recordCount="4.0"/>
                            </Node>
                            <Node id="635" score="No" recordCount="4.0">
                              <SimplePredicate field="MonthlyCharges" operator="greaterThan" value="34.625"/>
                              <ScoreDistribution value="No" recordCount="3.0"/>
                              <ScoreDistribution value="Yes" recordCount="1.0"/>
                            </Node>
                          </Node>
                        </Node>
                        <Node id="643" score="No" recordCount="7.0">
                          <SimplePredicate field="tenure" operator="greaterThan" value="5.5"/>
                          <ScoreDistribution value="No" recordCount="7.0"/>
                          <ScoreDistribution value="Yes" recordCount="0.0"/>
                        </Node>
                      </Node>
                      <Node id="646" score="Yes" recordCount="5.0">
                        <SimplePredicate field="tenure" operator="greaterThan" value="7.5"/>
                        <ScoreDistribution value="No" recordCount="2.0"/>
                        <ScoreDistribution value="Yes" recordCount="3.0"/>
                        <Node id="648" score="Yes" recordCount="3.0">
                          <SimplePredicate field="OnlineSecurity" operator="equal" value="No"/>
                          <ScoreDistribution value="No" recordCount="0.0"/>
                          <ScoreDistribution value="Yes" recordCount="3.0"/>
                        </Node>
                        <Node id="650" score="No" recordCount="2.0">
                          <SimplePredicate field="OnlineSecurity" operator="equal" value="Yes"/>
                          <ScoreDistribution value="No" recordCount="2.0"/>
                          <ScoreDistribution value="Yes" recordCount="0.0"/>
                        </Node>
                      </Node>
                    </Node>
                    <Node id="655" score="Yes" recordCount="4.0">
                      <SimplePredicate field="MonthlyCharges" operator="greaterThan" value="44.224999999999994"/>
                      <ScoreDistribution value="No" recordCount="0.0"/>
                      <ScoreDistribution value="Yes" recordCount="4.0"/>
                    </Node>
                  </Node>
                  <Node id="659" score="No" recordCount="9.0">
                    <SimplePredicate field="MonthlyCharges" operator="greaterThan" value="44.474999999999994"/>
                    <ScoreDistribution value="No" recordCount="9.0"/>
                    <ScoreDistribution value="Yes" recordCount="0.0"/>
                  </Node>
                </Node>
                <Node id="664" score="Yes" recordCount="4.0">
                  <SimplePredicate field="StreamingMovies" operator="equal" value="Yes"/>
                  <ScoreDistribution value="No" recordCount="1.0"/>
                  <ScoreDistribution value="Yes" recordCount="3.0"/>
                </Node>
              </Node>
              <Node id="670" score="No" recordCount="100.0">
                <SimplePredicate field="MonthlyCharges" operator="greaterThan" value="44.95"/>
                <ScoreDistribution value="No" recordCount="52.0"/>
                <ScoreDistribution value="Yes" recordCount="48.0"/>
                <Node id="677" score="Yes" recordCount="23.0">
                  <SimplePredicate field="MonthlyCharges" operator="lessOrEqual" value="47.55"/>
                  <ScoreDistribution value="No" recordCount="6.0"/>
                  <ScoreDistribution value="Yes" recordCount="17.0"/>
                  <Node id="678" score="No" recordCount="10.0">
                    <SimplePredicate field="MonthlyCharges" operator="lessOrEqual" value="45.6"/>
                    <ScoreDistribution value="No" recordCount="5.0"/>
                    <ScoreDistribution value="Yes" recordCount="5.0"/>
                    <Node id="680" score="Yes" recordCount="4.0">
                      <SimplePredicate field="MonthlyCharges" operator="lessOrEqual" value="45.150000000000006"/>
                      <ScoreDistribution value="No" recordCount="0.0"/>
                      <ScoreDistribution value="Yes" recordCount="4.0"/>
                    </Node>
                    <Node id="681" score="No" recordCount="6.0">
                      <SimplePredicate field="MonthlyCharges" operator="greaterThan" value="45.150000000000006"/>
                      <ScoreDistribution value="No" recordCount="5.0"/>
                      <ScoreDistribution value="Yes" recordCount="1.0"/>
                    </Node>
                  </Node>
                  <Node id="694" score="Yes" recordCount="13.0">
                    <SimplePredicate field="MonthlyCharges" operator="greaterThan" value="45.6"/>
                    <ScoreDistribution value="No" recordCount="1.0"/>
                    <ScoreDistribution value="Yes" recordCount="12.0"/>
                  </Node>
                </Node>
                <Node id="705" score="No" recordCount="77.0">
                  <SimplePredicate field="MonthlyCharges" operator="greaterThan" value="47.55"/>
                  <ScoreDistribution value="No" recordCount="46.0"/>
                  <ScoreDistribution value="Yes" recordCount="31.0"/>
                  <Node id="708" score="No" recordCount="14.0">
                    <SimplePredicate field="MonthlyCharges" operator="lessOrEqual" value="50.0"/>
                    <ScoreDistribution value="No" recordCount="13.0"/>
                    <ScoreDistribution value="Yes" recordCount="1.0"/>
                  </Node>
                  <Node id="713" score="No" recordCount="63.0">
                    <SimplePredicate field="MonthlyCharges" operator="greaterThan" value="50.0"/>
                    <ScoreDistribution value="No" recordCount="33.0"/>
                    <ScoreDistribution value="Yes" recordCount="30.0"/>
                    <Node id="714" score="Yes" recordCount="8.0">
                      <SimplePredicate field="TotalCharges" operator="lessOrEqual" value="51.05"/>
                      <ScoreDistribution value="No" recordCount="1.0"/>
                      <ScoreDistribution value="Yes" recordCount="7.0"/>
                    </Node>
                    <Node id="717" score="No" recordCount="55.0">
                      <SimplePredicate field="TotalCharges" operator="greaterThan" value="51.05"/>
                      <ScoreDistribution value="No" recordCount="32.0"/>
                      <ScoreDistribution value="Yes" recordCount="23.0"/>
                      <Node id="723" score="No" recordCount="50.0">
                        <SimplePredicate field="SeniorCitizen" operator="lessOrEqual" value="0.5"/>
                        <ScoreDistribution value="No" recordCount="31.0"/>
                        <ScoreDistribution value="Yes" recordCount="19.0"/>
                        <Node id="725" score="No" recordCount="33.0">
                          <SimplePredicate field="OnlineSecurity" operator="equal" value="No"/>
                          <ScoreDistribution value="No" recordCount="18.0"/>
                          <ScoreDistribution value="Yes" recordCount="15.0"/>
                          <Node id="726" score="Yes" recordCount="29.0">
                            <SimplePredicate field="TotalCharges" operator="lessOrEqual" value="242.15"/>
                            <ScoreDistribution value="No" recordCount="14.0"/>
                            <ScoreDistribution value="Yes" recordCount="15.0"/>
                            <Node id="727" score="No" recordCount="23.0">
                              <SimplePredicate field="tenure" operator="lessOrEqual" value="3.5"/>
                              <ScoreDistribution value="No" recordCount="13.0"/>
                              <ScoreDistribution value="Yes" recordCount="10.0"/>
                              <Node id="729" score="Yes" recordCount="7.0">
                                <SimplePredicate field="TotalCharges" operator="lessOrEqual" value="79.425"/>
                                <ScoreDistribution value="No" recordCount="2.0"/>
                                <ScoreDistribution value="Yes" recordCount="5.0"/>
                              </Node>
                              <Node id="740" score="No" recordCount="16.0">
                                <SimplePredicate field="TotalCharges" operator="greaterThan" value="79.425"/>
                                <ScoreDistribution value="No" recordCount="11.0"/>
                                <ScoreDistribution value="Yes" recordCount="5.0"/>
                                <Node id="743" score="No" recordCount="4.0">
                                  <SimplePredicate field="TotalCharges" operator="lessOrEqual" value="114.85"/>
                                  <ScoreDistribution value="No" recordCount="4.0"/>
                                  <ScoreDistribution value="Yes" recordCount="0.0"/>
                                </Node>
                                <Node id="744" score="No" recordCount="12.0">
                                  <SimplePredicate field="TotalCharges" operator="greaterThan" value="114.85"/>
                                  <ScoreDistribution value="No" recordCount="7.0"/>
                                  <ScoreDistribution value="Yes" recordCount="5.0"/>
                                  <Node id="746" score="No" recordCount="10.0">
                                    <SimplePredicate field="TotalCharges" operator="lessOrEqual" value="192.8"/>
                                    <ScoreDistribution value="No" recordCount="5.0"/>
                                    <ScoreDistribution value="Yes" recordCount="5.0"/>
                                    <Node id="748" score="No" recordCount="4.0">
                                      <SimplePredicate field="PaymentMethod" operator="equal" value="Electronic check"/>
                                      <ScoreDistribution value="No" recordCount="3.0"/>
                                      <ScoreDistribution value="Yes" recordCount="1.0"/>
                                    </Node>
                                    <Node id="754" score="Yes" recordCount="2.0">
                                      <SimplePredicate field="PaymentMethod" operator="equal" value="Mailed check"/>
                                      <ScoreDistribution value="No" recordCount="0.0"/>
                                      <ScoreDistribution value="Yes" recordCount="2.0"/>
                                    </Node>
                                    <Node id="756" score="No" recordCount="2.0">
                                      <SimplePredicate field="PaymentMethod" operator="equal" value="Bank transfer (automatic)"/>
                                      <ScoreDistribution value="No" recordCount="1.0"/>
                                      <ScoreDistribution value="Yes" recordCount="1.0"/>
                                    </Node>
                                    <Node id="757" score="No" recordCount="2.0">
                                      <SimplePredicate field="PaymentMethod" operator="equal" value="Credit card (automatic)"/>
                                      <ScoreDistribution value="No" recordCount="1.0"/>
                                      <ScoreDistribution value="Yes" recordCount="1.0"/>
                                    </Node>
                                  </Node>
                                  <Node id="760" score="No" recordCount="2.0">
                                    <SimplePredicate field="TotalCharges" operator="greaterThan" value="192.8"/>
                                    <ScoreDistribution value="No" recordCount="2.0"/>
                                    <ScoreDistribution value="Yes" recordCount="0.0"/>
                                  </Node>
                                </Node>
                              </Node>
                            </Node>
                            <Node id="763" score="Yes" recordCount="6.0">
                              <SimplePredicate field="tenure" operator="greaterThan" value="3.5"/>
                              <ScoreDistribution value="No" recordCount="1.0"/>
                              <ScoreDistribution value="Yes" recordCount="5.0"/>
                            </Node>
                          </Node>
                          <Node id="773" score="No" recordCount="4.0">
                            <SimplePredicate field="TotalCharges" operator="greaterThan" value="242.15"/>
                            <ScoreDistribution value="No" recordCount="4.0"/>
                            <ScoreDistribution value="Yes" recordCount="0.0"/>
                          </Node>
                        </Node>
                        <Node id="774" score="No" recordCount="17.0">
                          <SimplePredicate field="OnlineSecurity" operator="equal" value="Yes"/>
                          <ScoreDistribution value="No" recordCount="13.0"/>
                          <ScoreDistribution value="Yes" recordCount="4.0"/>
                          <Node id="775" score="No" recordCount="14.0">
                            <SimplePredicate field="TotalCharges" operator="lessOrEqual" value="252.47500000000002"/>
                            <ScoreDistribution value="No" recordCount="12.0"/>
                            <ScoreDistribution value="Yes" recordCount="2.0"/>
                            <Node id="776" score="No" recordCount="7.0">
                              <SimplePredicate field="MonthlyCharges" operator="lessOrEqual" value="55.275000000000006"/>
                              <ScoreDistribution value="No" recordCount="7.0"/>
                              <ScoreDistribution value="Yes" recordCount="0.0"/>
                            </Node>
                            <Node id="777" score="No" recordCount="7.0">
                              <SimplePredicate field="MonthlyCharges" operator="greaterThan" value="55.275000000000006"/>
                              <ScoreDistribution value="No" recordCount="5.0"/>
                              <ScoreDistribution value="Yes" recordCount="2.0"/>
                              <Node id="778" score="No" recordCount="4.0">
                                <SimplePredicate field="MonthlyCharges" operator="lessOrEqual" value="56.725"/>
                                <ScoreDistribution value="No" recordCount="2.0"/>
                                <ScoreDistribution value="Yes" recordCount="2.0"/>
                                <Node id="779" score="Yes" recordCount="2.0">
                                  <SimplePredicate field="DeviceProtection" operator="equal" value="No"/>
                                  <ScoreDistribution value="No" recordCount="0.0"/>
                                  <ScoreDistribution value="Yes" recordCount="2.0"/>
                                </Node>
                                <Node id="780" score="No" recordCount="2.0">
                                  <SimplePredicate field="DeviceProtection" operator="equal" value="Yes"/>
                                  <ScoreDistribution value="No" recordCount="2.0"/>
                                  <ScoreDistribution value="Yes" recordCount="0.0"/>
                                </Node>
                              </Node>
                              <Node id="782" score="No" recordCount="3.0">
                                <SimplePredicate field="MonthlyCharges" operator="greaterThan" value="56.725"/>
                                <ScoreDistribution value="No" recordCount="3.0"/>
                                <ScoreDistribution value="Yes" recordCount="0.0"/>
                              </Node>
                            </Node>
                          </Node>
                          <Node id="783" score="Yes" recordCount="3.0">
                            <SimplePredicate field="TotalCharges" operator="greaterThan" value="252.47500000000002"/>
                            <ScoreDistribution value="No" recordCount="1.0"/>
                            <ScoreDistribution value="Yes" recordCount="2.0"/>
                          </Node>
                        </Node>
                      </Node>
                      <Node id="785" score="Yes" recordCount="5.0">
                        <SimplePredicate field="SeniorCitizen" operator="greaterThan" value="0.5"/>
                        <ScoreDistribution value="No" recordCount="1.0"/>
                        <ScoreDistribution value="Yes" recordCount="4.0"/>
                      </Node>
                    </Node>
                  </Node>
                </Node>
              </Node>
            </Node>
          </Node>
          <Node id="788" score="No" recordCount="512.0">
            <SimplePredicate field="TotalCharges" operator="greaterThan" value="310.9"/>
            <ScoreDistribution value="No" recordCount="423.0"/>
            <ScoreDistribution value="Yes" recordCount="89.0"/>
            <Node id="789" score="No" recordCount="274.0">
              <SimplePredicate field="tenure" operator="lessOrEqual" value="22.5"/>
              <ScoreDistribution value="No" recordCount="213.0"/>
              <ScoreDistribution value="Yes" recordCount="61.0"/>
              <Node id="790" score="No" recordCount="102.0">
                <SimplePredicate field="PaymentMethod" operator="equal" value="Electronic check"/>
                <ScoreDistribution value="No" recordCount="72.0"/>
                <ScoreDistribution value="Yes" recordCount="30.0"/>
                <Node id="822" score="No" recordCount="60.0">
                  <SimplePredicate field="tenure" operator="lessOrEqual" value="13.5"/>
                  <ScoreDistribution value="No" recordCount="50.0"/>
                  <ScoreDistribution value="Yes" recordCount="10.0"/>
                  <Node id="825" score="No" recordCount="27.0">
                    <SimplePredicate field="MonthlyCharges" operator="lessOrEqual" value="51.075"/>
                    <ScoreDistribution value="No" recordCount="19.0"/>
                    <ScoreDistribution value="Yes" recordCount="8.0"/>
                    <Node id="826" score="No" recordCount="22.0">
                      <SimplePredicate field="DeviceProtection" operator="equal" value="No"/>
                      <ScoreDistribution value="No" recordCount="18.0"/>
                      <ScoreDistribution value="Yes" recordCount="4.0"/>
                      <Node id="830" score="No" recordCount="13.0">
                        <SimplePredicate field="PaperlessBilling" operator="equal" value="Yes"/>
                        <ScoreDistribution value="No" recordCount="9.0"/>
                        <ScoreDistribution value="Yes" recordCount="4.0"/>
                        <Node id="832" score="No" recordCount="10.0">
                          <SimplePredicate field="Dependents" operator="equal" value="No"/>
                          <ScoreDistribution value="No" recordCount="6.0"/>
                          <ScoreDistribution value="Yes" recordCount="4.0"/>
                          <Node id="835" score="Yes" recordCount="5.0">
                            <SimplePredicate field="TotalCharges" operator="lessOrEqual" value="377.75"/>
                            <ScoreDistribution value="No" recordCount="2.0"/>
                            <ScoreDistribution value="Yes" recordCount="3.0"/>
                            <Node id="836" score="No" recordCount="2.0">
                              <SimplePredicate field="tenure" operator="lessOrEqual" value="7.5"/>
                              <ScoreDistribution value="No" recordCount="2.0"/>
                              <ScoreDistribution value="Yes" recordCount="0.0"/>
                            </Node>
                            <Node id="838" score="Yes" recordCount="3.0">
                              <SimplePredicate field="tenure" operator="greaterThan" value="7.5"/>
                              <ScoreDistribution value="No" recordCount="0.0"/>
                              <ScoreDistribution value="Yes" recordCount="3.0"/>
                            </Node>
                          </Node>
                          <Node id="839" score="No" recordCount="5.0">
                            <SimplePredicate field="TotalCharges" operator="greaterThan" value="377.75"/>
                            <ScoreDistribution value="No" recordCount="4.0"/>
                            <ScoreDistribution value="Yes" recordCount="1.0"/>
                          </Node>
                        </Node>
                        <Node id="844" score="No" recordCount="3.0">
                          <SimplePredicate field="Dependents" operator="equal" value="Yes"/>
                          <ScoreDistribution value="No" recordCount="3.0"/>
                          <ScoreDistribution value="Yes" recordCount="0.0"/>
                        </Node>
                      </Node>
                      <Node id="846" score="No" recordCount="9.0">
                        <SimplePredicate field="PaperlessBilling" operator="equal" value="No"/>
                        <ScoreDistribution value="No" recordCount="9.0"/>
                        <ScoreDistribution value="Yes" recordCount="0.0"/>
                      </Node>
                    </Node>
                    <Node id="847" score="Yes" recordCount="5.0">
                      <SimplePredicate field="DeviceProtection" operator="equal" value="Yes"/>
                      <ScoreDistribution value="No" recordCount="1.0"/>
                      <ScoreDistribution value="Yes" recordCount="4.0"/>
                    </Node>
                  </Node>
                  <Node id="860" score="No" recordCount="33.0">
                    <SimplePredicate field="MonthlyCharges" operator="greaterThan" value="51.075"/>
                    <ScoreDistribution value="No" recordCount="31.0"/>
                    <ScoreDistribution value="Yes" recordCount="2.0"/>
                  </Node>
                </Node>
                <Node id="867" score="No" recordCount="42.0">
                  <SimplePredicate field="tenure" operator="greaterThan" value="13.5"/>
                  <ScoreDistribution value="No" recordCount="22.0"/>
                  <ScoreDistribution value="Yes" recordCount="20.0"/>
                  <Node id="869" score="No" recordCount="12.0">
                    <SimplePredicate field="OnlineBackup" operator="equal" value="Yes"/>
                    <ScoreDistribution value="No" recordCount="9.0"/>
                    <ScoreDistribution value="Yes" recordCount="3.0"/>
                    <Node id="870" score="No" recordCount="5.0">
                      <SimplePredicate field="TotalCharges" operator="lessOrEqual" value="906.475"/>
                      <ScoreDistribution value="No" recordCount="5.0"/>
                      <ScoreDistribution value="Yes" recordCount="0.0"/>
                    </Node>
                    <Node id="871" score="No" recordCount="7.0">
                      <SimplePredicate field="TotalCharges" operator="greaterThan" value="906.475"/>
                      <ScoreDistribution value="No" recordCount="4.0"/>
                      <ScoreDistribution value="Yes" recordCount="3.0"/>
                      <Node id="873" score="Yes" recordCount="4.0">
                        <SimplePredicate field="StreamingMovies" operator="equal" value="No"/>
                        <ScoreDistribution value="No" recordCount="1.0"/>
                        <ScoreDistribution value="Yes" recordCount="3.0"/>
                      </Node>
                      <Node id="876" score="No" recordCount="3.0">
                        <SimplePredicate field="StreamingMovies" operator="equal" value="Yes"/>
                        <ScoreDistribution value="No" recordCount="3.0"/>
                        <ScoreDistribution value="Yes" recordCount="0.0"/>
                      </Node>
                    </Node>
                  </Node>
                  <Node id="879" score="Yes" recordCount="30.0">
                    <SimplePredicate field="OnlineBackup" operator="equal" value="No"/>
                    <ScoreDistribution value="No" recordCount="13.0"/>
                    <ScoreDistribution value="Yes" recordCount="17.0"/>
                    <Node id="882" score="Yes" recordCount="17.0">
                      <SimplePredicate field="TotalCharges" operator="lessOrEqual" value="881.9"/>
                      <ScoreDistribution value="No" recordCount="4.0"/>
                      <ScoreDistribution value="Yes" recordCount="13.0"/>
                      <Node id="883" score="Yes" recordCount="14.0">
                        <SimplePredicate field="TechSupport" operator="equal" value="No"/>
                        <ScoreDistribution value="No" recordCount="2.0"/>
                        <ScoreDistribution value="Yes" recordCount="12.0"/>
                      </Node>
                      <Node id="893" score="No" recordCount="3.0">
                        <SimplePredicate field="TechSupport" operator="equal" value="Yes"/>
                        <ScoreDistribution value="No" recordCount="2.0"/>
                        <ScoreDistribution value="Yes" recordCount="1.0"/>
                      </Node>
                    </Node>
                    <Node id="896" score="No" recordCount="13.0">
                      <SimplePredicate field="TotalCharges" operator="greaterThan" value="881.9"/>
                      <ScoreDistribution value="No" recordCount="9.0"/>
                      <ScoreDistribution value="Yes" recordCount="4.0"/>
                      <Node id="898" score="No" recordCount="6.0">
                        <SimplePredicate field="TotalCharges" operator="lessOrEqual" value="973.0"/>
                        <ScoreDistribution value="No" recordCount="6.0"/>
                        <ScoreDistribution value="Yes" recordCount="0.0"/>
                      </Node>
                      <Node id="899" score="Yes" recordCount="7.0">
                        <SimplePredicate field="TotalCharges" operator="greaterThan" value="973.0"/>
                        <ScoreDistribution value="No" recordCount="3.0"/>
                        <ScoreDistribution value="Yes" recordCount="4.0"/>
                        <Node id="901" score="No" recordCount="2.0">
                          <SimplePredicate field="MonthlyCharges" operator="lessOrEqual" value="52.650000000000006"/>
                          <ScoreDistribution value="No" recordCount="2.0"/>
                          <ScoreDistribution value="Yes" recordCount="0.0"/>
                        </Node>
                        <Node id="903" score="Yes" recordCount="5.0">
                          <SimplePredicate field="MonthlyCharges" operator="greaterThan" value="52.650000000000006"/>
                          <ScoreDistribution value="No" recordCount="1.0"/>
                          <ScoreDistribution value="Yes" recordCount="4.0"/>
                        </Node>
                      </Node>
                    </Node>
                  </Node>
                </Node>
              </Node>
              <Node id="914" score="No" recordCount="84.0">
                <SimplePredicate field="PaymentMethod" operator="equal" value="Mailed check"/>
                <ScoreDistribution value="No" recordCount="68.0"/>
                <ScoreDistribution value="Yes" recordCount="16.0"/>
                <Node id="917" score="No" recordCount="71.0">
                  <SimplePredicate field="MonthlyCharges" operator="lessOrEqual" value="66.475"/>
                  <ScoreDistribution value="No" recordCount="55.0"/>
                  <ScoreDistribution value="Yes" recordCount="16.0"/>
                  <Node id="922" score="No" recordCount="60.0">
                    <SimplePredicate field="MonthlyCharges" operator="lessOrEqual" value="61.05"/>
                    <ScoreDistribution value="No" recordCount="50.0"/>
                    <ScoreDistribution value="Yes" recordCount="10.0"/>
                    <Node id="928" score="No" recordCount="44.0">
                      <SimplePredicate field="TechSupport" operator="equal" value="No"/>
                      <ScoreDistribution value="No" recordCount="39.0"/>
                      <ScoreDistribution value="Yes" recordCount="5.0"/>
                      <Node id="933" score="No" recordCount="33.0">
                        <SimplePredicate field="TotalCharges" operator="lessOrEqual" value="862.575"/>
                        <ScoreDistribution value="No" recordCount="31.0"/>
                        <ScoreDistribution value="Yes" recordCount="2.0"/>
                      </Node>
                      <Node id="957" score="No" recordCount="11.0">
                        <SimplePredicate field="TotalCharges" operator="greaterThan" value="862.575"/>
                        <ScoreDistribution value="No" recordCount="8.0"/>
                        <ScoreDistribution value="Yes" recordCount="3.0"/>
                        <Node id="960" score="Yes" recordCount="4.0">
                          <SimplePredicate field="TotalCharges" operator="lessOrEqual" value="942.425"/>
                          <ScoreDistribution value="No" recordCount="1.0"/>
                          <ScoreDistribution value="Yes" recordCount="3.0"/>
                        </Node>
                        <Node id="966" score="No" recordCount="7.0">
                          <SimplePredicate field="TotalCharges" operator="greaterThan" value="942.425"/>
                          <ScoreDistribution value="No" recordCount="7.0"/>
                          <ScoreDistribution value="Yes" recordCount="0.0"/>
                        </Node>
                      </Node>
                    </Node>
                    <Node id="968" score="No" recordCount="16.0">
                      <SimplePredicate field="TechSupport" operator="equal" value="Yes"/>
                      <ScoreDistribution value="No" recordCount="11.0"/>
                      <ScoreDistribution value="Yes" recordCount="5.0"/>
                      <Node id="969" score="Yes" recordCount="2.0">
                        <SimplePredicate field="TotalCharges" operator="lessOrEqual" value="424.1"/>
                        <ScoreDistribution value="No" recordCount="0.0"/>
                        <ScoreDistribution value="Yes" recordCount="2.0"/>
                      </Node>
                      <Node id="970" score="No" recordCount="14.0">
                        <SimplePredicate field="TotalCharges" operator="greaterThan" value="424.1"/>
                        <ScoreDistribution value="No" recordCount="11.0"/>
                        <ScoreDistribution value="Yes" recordCount="3.0"/>
                        <Node id="971" score="No" recordCount="7.0">
                          <SimplePredicate field="MonthlyCharges" operator="lessOrEqual" value="50.75"/>
                          <ScoreDistribution value="No" recordCount="7.0"/>
                          <ScoreDistribution value="Yes" recordCount="0.0"/>
                        </Node>
                        <Node id="972" score="No" recordCount="7.0">
                          <SimplePredicate field="MonthlyCharges" operator="greaterThan" value="50.75"/>
                          <ScoreDistribution value="No" recordCount="4.0"/>
                          <ScoreDistribution value="Yes" recordCount="3.0"/>
                          <Node id="973" score="Yes" recordCount="5.0">
                            <SimplePredicate field="TotalCharges" operator="lessOrEqual" value="1077.0"/>
                            <ScoreDistribution value="No" recordCount="2.0"/>
                            <ScoreDistribution value="Yes" recordCount="3.0"/>
                            <Node id="974" score="No" recordCount="3.0">
                              <SimplePredicate field="TotalCharges" operator="lessOrEqual" value="776.125"/>
                              <ScoreDistribution value="No" recordCount="2.0"/>
                              <ScoreDistribution value="Yes" recordCount="1.0"/>
                            </Node>
                            <Node id="975" score="Yes" recordCount="2.0">
                              <SimplePredicate field="TotalCharges" operator="greaterThan" value="776.125"/>
                              <ScoreDistribution value="No" recordCount="0.0"/>
                              <ScoreDistribution value="Yes" recordCount="2.0"/>
                            </Node>
                          </Node>
                          <Node id="976" score="No" recordCount="2.0">
                            <SimplePredicate field="TotalCharges" operator="greaterThan" value="1077.0"/>
                            <ScoreDistribution value="No" recordCount="2.0"/>
                            <ScoreDistribution value="Yes" recordCount="0.0"/>
                          </Node>
                        </Node>
                      </Node>
                    </Node>
                  </Node>
                  <Node id="979" score="Yes" recordCount="11.0">
                    <SimplePredicate field="MonthlyCharges" operator="greaterThan" value="61.05"/>
                    <ScoreDistribution value="No" recordCount="5.0"/>
                    <ScoreDistribution value="Yes" recordCount="6.0"/>
                    <Node id="981" score="Yes" recordCount="9.0">
                      <SimplePredicate field="gender" operator="equal" value="Female"/>
                      <ScoreDistribution value="No" recordCount="3.0"/>
                      <ScoreDistribution value="Yes" recordCount="6.0"/>
                      <Node id="982" score="No" recordCount="6.0">
                        <SimplePredicate field="MonthlyCharges" operator="lessOrEqual" value="64.4"/>
                        <ScoreDistribution value="No" recordCount="3.0"/>
                        <ScoreDistribution value="Yes" recordCount="3.0"/>
                        <Node id="983" score="Yes" recordCount="3.0">
                          <SimplePredicate field="MonthlyCharges" operator="lessOrEqual" value="62.4"/>
                          <ScoreDistribution value="No" recordCount="0.0"/>
                          <ScoreDistribution value="Yes" recordCount="3.0"/>
                        </Node>
                        <Node id="984" score="No" recordCount="3.0">
                          <SimplePredicate field="MonthlyCharges" operator="greaterThan" value="62.4"/>
                          <ScoreDistribution value="No" recordCount="3.0"/>
                          <ScoreDistribution value="Yes" recordCount="0.0"/>
                        </Node>
                      </Node>
                      <Node id="986" score="Yes" recordCount="3.0">
                        <SimplePredicate field="MonthlyCharges" operator="greaterThan" value="64.4"/>
                        <ScoreDistribution value="No" recordCount="0.0"/>
                        <ScoreDistribution value="Yes" recordCount="3.0"/>
                      </Node>
                    </Node>
                    <Node id="987" score="No" recordCount="2.0">
                      <SimplePredicate field="gender" operator="equal" value="Male"/>
                      <ScoreDistribution value="No" recordCount="2.0"/>
                      <ScoreDistribution value="Yes" recordCount="0.0"/>
                    </Node>
                  </Node>
                </Node>
                <Node id="988" score="No" recordCount="13.0">
                  <SimplePredicate field="MonthlyCharges" operator="greaterThan" value="66.475"/>
                  <ScoreDistribution value="No" recordCount="13.0"/>
                  <ScoreDistribution value="Yes" recordCount="0.0"/>
                </Node>
              </Node>
              <Node id="989" score="No" recordCount="50.0">
                <SimplePredicate field="PaymentMethod" operator="equal" value="Bank transfer (automatic)"/>
                <ScoreDistribution value="No" recordCount="45.0"/>
                <ScoreDistribution value="Yes" recordCount="5.0"/>
              </Node>
              <Node id="1019" score="No" recordCount="38.0">
                <SimplePredicate field="PaymentMethod" operator="equal" value="Credit card (automatic)"/>
                <ScoreDistribution value="No" recordCount="28.0"/>
                <ScoreDistribution value="Yes" recordCount="10.0"/>
                <Node id="1020" score="No" recordCount="14.0">
                  <SimplePredicate field="Partner" operator="equal" value="Yes"/>
                  <ScoreDistribution value="No" recordCount="13.0"/>
                  <ScoreDistribution value="Yes" recordCount="1.0"/>
                </Node>
                <Node id="1023" score="No" recordCount="24.0">
                  <SimplePredicate field="Partner" operator="equal" value="No"/>
                  <ScoreDistribution value="No" recordCount="15.0"/>
                  <ScoreDistribution value="Yes" recordCount="9.0"/>
                  <Node id="1025" score="No" recordCount="5.0">
                    <SimplePredicate field="MultipleLines" operator="equal" value="No phone service"/>
                    <ScoreDistribution value="No" recordCount="3.0"/>
                    <ScoreDistribution value="Yes" recordCount="2.0"/>
                    <Node id="1027" score="No" recordCount="3.0">
                      <SimplePredicate field="TotalCharges" operator="lessOrEqual" value="551.475"/>
                      <ScoreDistribution value="No" recordCount="3.0"/>
                      <ScoreDistribution value="Yes" recordCount="0.0"/>
                    </Node>
                    <Node id="1028" score="Yes" recordCount="2.0">
                      <SimplePredicate field="TotalCharges" operator="greaterThan" value="551.475"/>
                      <ScoreDistribution value="No" recordCount="0.0"/>
                      <ScoreDistribution value="Yes" recordCount="2.0"/>
                    </Node>
                  </Node>
                  <Node id="1030" score="No" recordCount="14.0">
                    <SimplePredicate field="MultipleLines" operator="equal" value="No"/>
                    <ScoreDistribution value="No" recordCount="11.0"/>
                    <ScoreDistribution value="Yes" recordCount="3.0"/>
                    <Node id="1032" score="No" recordCount="9.0">
                      <SimplePredicate field="Dependents" operator="equal" value="No"/>
                      <ScoreDistribution value="No" recordCount="6.0"/>
                      <ScoreDistribution value="Yes" recordCount="3.0"/>
                      <Node id="1033" score="No" recordCount="3.0">
                        <SimplePredicate field="TotalCharges" operator="lessOrEqual" value="444.425"/>
                        <ScoreDistribution value="No" recordCount="3.0"/>
                        <ScoreDistribution value="Yes" recordCount="0.0"/>
                      </Node>
                      <Node id="1034" score="No" recordCount="6.0">
                        <SimplePredicate field="TotalCharges" operator="greaterThan" value="444.425"/>
                        <ScoreDistribution value="No" recordCount="3.0"/>
                        <ScoreDistribution value="Yes" recordCount="3.0"/>
                        <Node id="1037" score="Yes" recordCount="4.0">
                          <SimplePredicate field="TotalCharges" operator="lessOrEqual" value="1052.3"/>
                          <ScoreDistribution value="No" recordCount="1.0"/>
                          <ScoreDistribution value="Yes" recordCount="3.0"/>
                        </Node>
                        <Node id="1043" score="No" recordCount="2.0">
                          <SimplePredicate field="TotalCharges" operator="greaterThan" value="1052.3"/>
                          <ScoreDistribution value="No" recordCount="2.0"/>
                          <ScoreDistribution value="Yes" recordCount="0.0"/>
                        </Node>
                      </Node>
                    </Node>
                    <Node id="1047" score="No" recordCount="5.0">
                      <SimplePredicate field="Dependents" operator="equal" value="Yes"/>
                      <ScoreDistribution value="No" recordCount="5.0"/>
                      <ScoreDistribution value="Yes" recordCount="0.0"/>
                    </Node>
                  </Node>
                  <Node id="1050" score="Yes" recordCount="5.0">
                    <SimplePredicate field="MultipleLines" operator="equal" value="Yes"/>
                    <ScoreDistribution value="No" recordCount="1.0"/>
                    <ScoreDistribution value="Yes" recordCount="4.0"/>
                  </Node>
                </Node>
              </Node>
            </Node>
            <Node id="1062" score="No" recordCount="238.0">
              <SimplePredicate field="tenure" operator="greaterThan" value="22.5"/>
              <ScoreDistribution value="No" recordCount="210.0"/>
              <ScoreDistribution value="Yes" recordCount="28.0"/>
              <Node id="1075" score="No" recordCount="83.0">
                <SimplePredicate field="MultipleLines" operator="equal" value="No phone service"/>
                <ScoreDistribution value="No" recordCount="65.0"/>
                <ScoreDistribution value="Yes" recordCount="18.0"/>
                <Node id="1081" score="No" recordCount="33.0">
                  <SimplePredicate field="PaymentMethod" operator="equal" value="Electronic check"/>
                  <ScoreDistribution value="No" recordCount="28.0"/>
                  <ScoreDistribution value="Yes" recordCount="5.0"/>
                  <Node id="1088" score="No" recordCount="20.0">
                    <SimplePredicate field="TotalCharges" operator="lessOrEqual" value="2106.95"/>
                    <ScoreDistribution value="No" recordCount="20.0"/>
                    <ScoreDistribution value="Yes" recordCount="0.0"/>
                  </Node>
                  <Node id="1089" score="No" recordCount="13.0">
                    <SimplePredicate field="TotalCharges" operator="greaterThan" value="2106.95"/>
                    <ScoreDistribution value="No" recordCount="8.0"/>
                    <ScoreDistribution value="Yes" recordCount="5.0"/>
                    <Node id="1093" score="Yes" recordCount="2.0">
                      <SimplePredicate field="TotalCharges" operator="lessOrEqual" value="2295.25"/>
                      <ScoreDistribution value="No" recordCount="0.0"/>
                      <ScoreDistribution value="Yes" recordCount="2.0"/>
                    </Node>
                    <Node id="1094" score="No" recordCount="11.0">
                      <SimplePredicate field="TotalCharges" operator="greaterThan" value="2295.25"/>
                      <ScoreDistribution value="No" recordCount="8.0"/>
                      <ScoreDistribution value="Yes" recordCount="3.0"/>
                      <Node id="1095" score="No" recordCount="4.0">
                        <SimplePredicate field="MonthlyCharges" operator="lessOrEqual" value="45.125"/>
                        <ScoreDistribution value="No" recordCount="4.0"/>
                        <ScoreDistribution value="Yes" recordCount="0.0"/>
                      </Node>
                      <Node id="1097" score="No" recordCount="7.0">
                        <SimplePredicate field="MonthlyCharges" operator="greaterThan" value="45.125"/>
                        <ScoreDistribution value="No" recordCount="4.0"/>
                        <ScoreDistribution value="Yes" recordCount="3.0"/>
                        <Node id="1100" score="Yes" recordCount="4.0">
                          <SimplePredicate field="MonthlyCharges" operator="lessOrEqual" value="51.25"/>
                          <ScoreDistribution value="No" recordCount="1.0"/>
                          <ScoreDistribution value="Yes" recordCount="3.0"/>
                        </Node>
                        <Node id="1107" score="No" recordCount="3.0">
                          <SimplePredicate field="MonthlyCharges" operator="greaterThan" value="51.25"/>
                          <ScoreDistribution value="No" recordCount="3.0"/>
                          <ScoreDistribution value="Yes" recordCount="0.0"/>
                        </Node>
                      </Node>
                    </Node>
                  </Node>
                </Node>
                <Node id="1113" score="No" recordCount="6.0">
                  <SimplePredicate field="PaymentMethod" operator="equal" value="Mailed check"/>
                  <ScoreDistribution value="No" recordCount="6.0"/>
                  <ScoreDistribution value="Yes" recordCount="0.0"/>
                </Node>
                <Node id="1114" score="No" recordCount="22.0">
                  <SimplePredicate field="PaymentMethod" operator="equal" value="Bank transfer (automatic)"/>
                  <ScoreDistribution value="No" recordCount="17.0"/>
                  <ScoreDistribution value="Yes" recordCount="5.0"/>
                  <Node id="1119" score="No" recordCount="4.0">
                    <SimplePredicate field="TotalCharges" operator="lessOrEqual" value="1372.425"/>
                    <ScoreDistribution value="No" recordCount="4.0"/>
                    <ScoreDistribution value="Yes" recordCount="0.0"/>
                  </Node>
                  <Node id="1121" score="No" recordCount="18.0">
                    <SimplePredicate field="TotalCharges" operator="greaterThan" value="1372.425"/>
                    <ScoreDistribution value="No" recordCount="13.0"/>
                    <ScoreDistribution value="Yes" recordCount="5.0"/>
                    <Node id="1127" score="Yes" recordCount="2.0">
                      <SimplePredicate field="TotalCharges" operator="lessOrEqual" value="1450.9499999999998"/>
                      <ScoreDistribution value="No" recordCount="0.0"/>
                      <ScoreDistribution value="Yes" recordCount="2.0"/>
                    </Node>
                    <Node id="1128" score="No" recordCount="16.0">
                      <SimplePredicate field="TotalCharges" operator="greaterThan" value="1450.9499999999998"/>
                      <ScoreDistribution value="No" recordCount="13.0"/>
                      <ScoreDistribution value="Yes" recordCount="3.0"/>
                      <Node id="1129" score="No" recordCount="6.0">
                        <SimplePredicate field="TotalCharges" operator="lessOrEqual" value="2131.1"/>
                        <ScoreDistribution value="No" recordCount="6.0"/>
                        <ScoreDistribution value="Yes" recordCount="0.0"/>
                      </Node>
                      <Node id="1131" score="No" recordCount="10.0">
                        <SimplePredicate field="TotalCharges" operator="greaterThan" value="2131.1"/>
                        <ScoreDistribution value="No" recordCount="7.0"/>
                        <ScoreDistribution value="Yes" recordCount="3.0"/>
                        <Node id="1133" score="Yes" recordCount="3.0">
                          <SimplePredicate field="TotalCharges" operator="lessOrEqual" value="2473.95"/>
                          <ScoreDistribution value="No" recordCount="1.0"/>
                          <ScoreDistribution value="Yes" recordCount="2.0"/>
                        </Node>
                        <Node id="1134" score="No" recordCount="7.0">
                          <SimplePredicate field="TotalCharges" operator="greaterThan" value="2473.95"/>
                          <ScoreDistribution value="No" recordCount="6.0"/>
                          <ScoreDistribution value="Yes" recordCount="1.0"/>
                        </Node>
                      </Node>
                    </Node>
                  </Node>
                </Node>
                <Node id="1144" score="No" recordCount="22.0">
                  <SimplePredicate field="PaymentMethod" operator="equal" value="Credit card (automatic)"/>
                  <ScoreDistribution value="No" recordCount="14.0"/>
                  <ScoreDistribution value="Yes" recordCount="8.0"/>
                  <Node id="1145" score="Yes" recordCount="11.0">
                    <SimplePredicate field="tenure" operator="lessOrEqual" value="40.5"/>
                    <ScoreDistribution value="No" recordCount="4.0"/>
                    <ScoreDistribution value="Yes" recordCount="7.0"/>
                    <Node id="1147" score="No" recordCount="8.0">
                      <SimplePredicate field="MonthlyCharges" operator="lessOrEqual" value="50.900000000000006"/>
                      <ScoreDistribution value="No" recordCount="4.0"/>
                      <ScoreDistribution value="Yes" recordCount="4.0"/>
                      <Node id="1148" score="Yes" recordCount="3.0">
                        <SimplePredicate field="MonthlyCharges" operator="lessOrEqual" value="34.8"/>
                        <ScoreDistribution value="No" recordCount="0.0"/>
                        <ScoreDistribution value="Yes" recordCount="3.0"/>
                      </Node>
                      <Node id="1149" score="No" recordCount="5.0">
                        <SimplePredicate field="MonthlyCharges" operator="greaterThan" value="34.8"/>
                        <ScoreDistribution value="No" recordCount="4.0"/>
                        <ScoreDistribution value="Yes" recordCount="1.0"/>
                      </Node>
                    </Node>
